int w0[16][30]= {{-574,-747,691,-520,-719,1394,-1125,-1596,249,1041,
-2190,1740,-1348,-732,781,375,-1038,310,-740,-679,
-303,-776,-509,-1021,-1328,-321,-2004,-623,39,-255
},{-693,-126,1477,-1016,1647,1619,882,-799,761,-1090,
1159,771,-19,1773,1044,-325,-397,271,733,46,
-966,-406,935,-14,859,811,1811,757,648,207
},{638,-280,427,1493,-772,-225,-442,835,-1112,-1197,
297,365,1876,1476,-839,-1413,182,-1155,-1827,902,
1107,1177,35,-500,819,1121,605,-831,-79,-1114
},{-671,-768,1435,280,1145,1726,-1819,-228,318,-365,
-704,-1353,-1734,-610,1552,1388,-1662,11,-226,-1226,
-1253,-2357,-1580,254,741,599,-1728,-1506,244,-57
},{-991,-916,-1288,-234,352,1388,-290,-1024,499,-872,
-912,1254,-505,-784,-905,22,1223,81,905,1546,
-1564,-522,948,-1342,-1782,485,16,-1623,288,432
},{16,-340,1232,908,-365,1415,-374,935,-1404,-608,
-1427,1770,-1381,-1549,-846,963,260,-308,-4,1357,
-453,707,395,-1430,-1717,530,769,-500,-348,-1203
},{-173,-924,1217,1492,930,658,-607,694,831,229,
497,-546,-1074,1391,-1097,534,-56,-153,-282,1037,
314,1381,-358,1041,2175,-405,-290,1547,-95,1093
},{-690,-398,340,1172,-827,-836,-438,475,587,786,
-531,249,742,-1016,-1014,-1647,90,-645,-965,470,
528,1078,1350,901,1798,1473,1513,767,1109,-717
},{-99,1178,-565,1168,645,140,-1168,-284,1553,-585,
564,254,457,-1169,-955,803,948,382,1189,609,
476,263,726,504,510,-432,-81,1256,-744,1580
},{367,-1584,-1143,-545,498,953,550,911,-519,119,
-1118,-1663,-900,-235,-925,562,-930,192,-251,468,
-1036,-1668,-708,679,-647,-170,50,-113,-1004,1121
},{-378,379,36,697,404,-322,813,-524,709,-1564,
1566,728,-623,584,-493,-873,824,1354,1346,622,
-151,-657,518,323,978,1715,-243,-61,-760,-1296
},{-639,321,-1124,-553,396,729,841,-535,-645,-1468,
-265,-246,-714,1326,23,-1907,-457,500,-1377,-1791,
1661,1056,-995,1954,1226,-871,167,886,129,520
},{-1278,-262,-118,-183,946,628,-303,-1457,-1479,1205,
-818,-1072,-518,-2039,970,1582,1098,-1286,-268,1509,
-501,491,95,-1466,-58,365,-653,665,-1174,-1434
},{1217,-1451,1181,-678,-1421,794,-1237,243,-853,-1578,
-2070,-748,599,169,-741,-35,-1029,-1680,1498,-554,
592,-639,154,1150,-1616,-153,-1238,-510,-609,552
},{1083,1139,1266,588,181,399,907,1793,-865,563,
-488,-1916,1462,1078,1485,-403,979,1592,878,-237,
996,-25,1563,-487,-75,1464,-197,243,2007,1135
},{-1172,-1233,-922,555,1016,-361,-949,-509,413,609,
-258,1525,1937,1283,-1087,-850,472,722,1121,-146,
517,-1752,-1195,1111,-1277,1280,-1117,-182,-990,-159
}};

int b0[16] = {1016,320,183,842,843,-470,321,951,23,690,
192,780,422,656,903,-173};

