double w0[16][30]= {{-0.33051637,-0.18597618,0.24229099,0.15034962,-0.078812264,-0.28503427,0.06893221,-0.028738609,0.07514705,0.056431215,
-0.3438362,-0.16987264,0.045168813,-0.18654226,-0.22781287,-0.12857659,0.196924,0.08329558,-0.26952222,0.16090378,
0.03300617,0.2573889,-0.046301328,-0.17103006,0.012010092,-0.12114954,-0.21074115,0.2545481,0.12679555,0.069087744
},{-0.2638557,0.036973048,0.22403292,-0.4022441,-0.21671145,0.36925325,-0.0070325076,0.0667563,0.396248,0.18316515,
-0.22727455,-0.18505922,-0.3772781,-0.25406235,-0.16424397,-0.19220172,-0.07394457,0.23734747,-0.044861387,-0.1895292,
0.13613,-0.16632064,-0.19641045,0.14690149,0.05040856,0.1096475,-0.42783216,0.271391,-0.044895936,-0.43094873
},{0.0620777,0.10621037,0.09503819,0.2628554,0.40011796,0.2212648,0.12186128,-0.11119485,0.07062736,-0.28860387,
-0.2637076,0.28775534,-0.23194475,-0.6288609,-0.10886405,0.27938715,-0.3228497,0.04729547,0.04295945,-0.082766354,
-0.106686085,-0.15165065,-0.3289976,-0.45488235,-0.28236964,-0.039554425,-0.38265264,-0.11645714,-0.10462814,0.06641162
},{0.10533603,-0.25893754,-0.25223157,-0.2896783,-0.22707798,0.2954115,-0.038599964,0.022369204,-0.19288097,0.017192246,
0.136509,-0.15879332,-0.34608725,-0.4754564,-0.032760393,-0.10170459,0.13901918,0.29536372,0.003928429,0.04819687,
-0.4061707,0.011810969,-0.2409755,-0.13826148,0.26257804,-0.24661759,-0.38324243,-0.10444402,-0.35022032,0.081172526
},{-0.20495754,0.43160895,0.4113934,0.14130855,0.057158656,0.37939158,0.40055603,0.22115481,0.083762914,0.12978935,
0.06368737,-0.15830223,0.2763227,0.19732168,0.24917445,0.0819214,0.2514769,0.0911607,0.07468161,-0.4898992,
0.27698034,-0.08695982,-0.13282537,-0.018037975,-0.10425515,-0.15780011,-0.01580289,0.4036214,-0.15418783,0.32135203
},{0.018395882,0.47210744,0.37649965,0.22513278,0.3430632,-0.02477177,-0.010771326,0.2320368,-0.046146728,-0.46280763,
0.17337811,-0.29627183,-0.1582184,-0.09549635,-0.34903684,-0.20381822,-0.086623475,0.29727978,-0.19470592,-0.41483206,
-0.12640968,0.27805337,-0.08906331,0.37899888,0.3116533,0.42964676,0.25553364,0.49636462,0.330738,0.15617639
},{-0.36642793,0.05730789,0.2332003,0.016575625,0.032430723,0.44652826,-0.22151303,-0.18997179,0.14155415,0.21251078,
-0.051111773,-0.39481035,-0.5611274,-0.4994218,-0.12427713,0.04852509,0.3426603,0.2656015,-0.09503003,0.12751284,
-0.2607881,-0.476274,-0.4267633,-0.29380563,-0.19577134,0.38977742,0.042284478,-0.40136927,-0.3435522,0.1425098
},{-0.2224233,-0.28344393,-0.025383992,-0.12579028,-0.0034038397,0.14253788,-0.04661199,-0.17389245,0.35254782,0.44596535,
0.0924204,-0.25347757,-0.5160351,0.13261132,0.28572494,0.120190755,-0.00063169654,-0.3019084,-0.18048553,0.10062962,
0.05301931,-0.5296856,0.045864254,-0.4332153,-0.030204793,-0.068922214,0.014011231,-0.31016138,-0.12379351,-0.4090186
},{0.011059548,0.15423805,0.04463616,-0.25343943,0.04983378,0.06897707,-0.3106582,-0.07437043,-0.27343005,-0.3780116,
-0.19510782,0.48988765,-0.4898762,-0.3543749,0.1532091,0.43071198,-0.12757987,0.34334883,0.3757579,0.43143845,
0.13483736,0.38479587,0.13785787,-0.42695007,-0.17874612,0.2837815,-0.022804916,0.1170268,-0.09581883,0.09648839
},{0.3971886,-0.050548553,0.306658,0.3194779,-0.18581799,0.2346939,0.0422342,-0.08288309,0.06666287,-0.41155797,
-0.097983345,-0.092326924,-0.196533,-0.09119301,0.01488747,-0.041586,0.40139988,-0.005381639,0.04275548,-0.049373906,
-0.15232176,0.5920916,0.05286847,0.43566954,0.54708594,0.06102962,0.13576654,0.45032504,0.34522524,-0.049498122
},{0.012503693,0.19224252,0.29421172,-0.37567583,0.29476324,-0.26230392,-0.0776134,0.03853296,0.025025971,-0.14317548,
-0.14035241,-0.3809299,0.2278946,-0.1858877,-0.27762103,0.14902864,-0.122033335,0.16114584,0.3134723,-0.1238638,
-0.15312488,0.015788985,-0.37273768,-0.35174707,-0.0622171,0.2601687,0.2624206,-0.1403288,-0.08726883,-0.09846704
},{-0.029302862,0.325355,0.034227237,0.0853016,0.1653748,0.24344712,0.11805411,0.4496854,0.019839618,-0.15617731,
0.22947283,-0.24368007,0.25255755,0.32297727,0.004172216,0.22337076,0.14038998,0.32931373,0.20884246,-0.12382633,
0.34867483,0.41020533,-0.25469095,0.30593,0.40749383,-0.12151198,-0.18482156,0.5063369,0.2916994,0.029517872
},{-0.29064038,-0.11590274,0.2468881,-0.22207193,-0.11477676,0.42997283,-0.0899196,-0.3942837,-0.09136909,0.3215521,
-0.50586456,-0.14018595,-0.39542967,-0.55294216,0.3344246,0.06628302,-0.48805922,0.12802373,0.2606845,-0.10324481,
0.16668867,-0.2141231,-0.39041722,-0.07998869,-0.17160542,0.061438594,-0.52747846,-0.16069451,-0.41873872,-0.12946138
},{0.0445364,0.18526472,-0.16076975,0.26166952,0.20614581,0.21109077,0.34887218,-0.2628431,0.36126494,0.16143064,
-0.10515954,0.21655622,0.3045834,-0.093558304,0.24781106,0.108341776,-0.06507473,-0.32009295,0.37522393,-0.28312427,
0.20625705,0.16114876,0.1374075,-0.18939579,0.17831591,0.331101,-0.29038537,0.18643287,0.08688993,0.17962858
},{0.08269011,-0.3017905,-0.23342127,0.2632037,-0.46133944,0.10790661,-0.3640779,-0.36361104,-0.32989895,-0.25497115,
0.13139525,-0.11318535,-0.021898339,0.109559685,-0.25176623,0.39348322,-0.18148781,0.13236797,0.1352204,0.3697192,
-0.3319995,-0.18651344,-0.0064559164,0.025640227,-0.15998489,0.06004019,0.06645319,-0.1631788,0.30176294,0.09337911
},{0.043111607,0.12449708,0.036378033,0.26258838,0.4015085,-0.32504904,-0.21593395,-0.1640543,-0.37389505,0.21841505,
0.55159307,0.27353856,0.12738185,-0.09907312,0.042953007,-0.16290896,0.16341454,0.055690058,-0.36184454,0.20618658,
-0.23564203,0.23902208,0.15619914,0.3787882,0.1997653,-0.47843096,0.1555448,0.23243104,0.117291525,-0.20074235
}};

double b0[16] = {-0.04278475,-0.020026919,0.18236294,0.000839554,0.2142369,0.2792855,0.24196732,0.18995124,0.1756153,0.321369,
-0.061760057,0.18846667,0.16726033,0.014134706,0.10490357,0.057526454};

