double w1[8][16]= {{0.16071141,-0.33357298,0.2998705,-0.26651904,0.28459725,-0.63554245,0.69331825,0.5282938,0.35970697,-0.1842877,
-0.052155968,-0.05208318,0.1349425,-0.36145642,0.6033152,-0.3750018},{0.24752992,0.21976,-0.6328422,-0.11544399,0.22415395,0.65441513,0.25474423,-0.36921698,0.012585336,0.47336817,
0.07814413,0.17049932,0.3060667,0.36761597,-0.36744702,0.7672338},{0.18458226,0.33427534,-0.2388873,0.11616361,-0.39745498,-0.308587,-0.4007182,-0.024195187,-0.19334911,0.17047006,
0.14697137,0.3402999,-0.36654398,0.13604738,-0.43024087,0.021868717},{-0.100138076,-0.21360525,-0.5338871,-0.39283186,0.09916989,0.7010434,-0.11889676,-0.1369331,0.01814578,0.6846943,
0.030047571,0.590824,-0.47954118,0.111987196,-0.031672355,0.26709184},{-0.033747617,-0.085118555,0.08577145,0.51466936,-0.609049,0.0883068,0.43934447,0.4582891,0.024406277,-0.13516848,
0.43296874,0.26778558,0.51052046,0.0046623535,0.3930393,0.091210164},{-0.38816607,0.21799934,0.234491,0.5093588,-0.27283174,0.0019077626,0.35574925,-0.25623575,0.45007515,-0.25730523,
0.47398707,-0.6918637,-0.109396026,0.14485893,0.6163426,-0.37711892},{-0.47374412,-0.55698115,0.27458078,-0.37307793,-0.10401059,-0.51159704,-0.070938654,0.037477016,0.037358537,-0.15060845,
-0.20844966,-0.1955449,0.2023537,-0.46731672,-0.047976095,-0.43267795},{0.14965744,0.454433,0.4881764,-0.28210685,-0.29972136,-0.14536956,0.6944793,0.50699186,0.74586046,-0.32864964,
-0.10832989,-0.5908234,0.19136141,0.032720946,-0.28578573,-0.50445235}};

double b1[8] = {0.0689057,0.26394823,-0.09901898,0.16783594,-0.1216085,0.11782017,-0.071974814,0.19792025};

