double weights_layer1[8][16] = {{-0.5673015,0.50952506,0.6458504,0.6855934,-0.28341338,-0.47347462,-0.1181929,-0.26117456,-0.447041,0.22258934,-0.16543898,0.022561945,0.42792377,0.31758496,-0.5815572,0.3071087},
{0.019310396,0.43436834,-0.10119858,-0.3363283,0.038274627,-0.20047043,0.5203719,0.12983741,0.025148498,0.7235123,0.15618575,-0.33683708,0.6839805,-0.3783033,0.5604461,-0.6380901},
{-0.35829088,-0.18202274,0.9140032,0.5893411,0.16831851,0.2596944,-0.041742247,-0.13914438,-0.52743256,-0.20943294,0.2602932,0.1502766,-0.29794455,-0.2787127,-0.02082793,0.119386844},
{0.7377977,-0.020168059,-0.36233252,-0.3692428,0.48393732,-0.18867992,0.59175295,0.25751323,0.49378645,0.68780136,-0.3406793,0.09351569,0.23666045,-0.09953678,1.0762564,-0.50630635},
{-0.435516,0.5463925,0.31356153,0.64287835,-0.19010393,-0.1830875,-0.20549989,0.13191283,0.051745676,0.18878488,0.60398686,0.34844497,0.13038166,-0.101654895,-0.5504621,0.6825281},
{0.63045293,0.30679727,-0.0015548663,-0.24630052,0.6401271,0.14675799,0.61402386,0.3528081,0.1604274,-0.22090885,-0.5391579,0.34893495,0.5916746,-0.30961618,0.6043815,-0.15435857},
{0.34694663,0.27878872,-0.050543573,-0.40038094,0.26577392,-0.43068516,-0.07726236,-0.016447678,-0.060694292,-0.40967804,-0.12863514,0.285621,-0.040400848,-0.22733541,0.01778675,-0.1409728},
{0.68426067,-0.34805962,-0.47532964,0.08171298,0.5599715,0.21306711,0.5820203,0.03714796,0.39594498,0.43913957,-0.16292326,0.36798626,0.16411118,0.0271294,-0.026844833,0.25290722}};

double biases_layer1[8] = {0.2572337,0.07462118,0.3296117,0.14484358,0.20808426,0.003998653,-0.06900031,-0.03319316};

