double weights_layer0[16][30] = {{0.30006424,0.0790858,-0.014539916,-0.04079867,-0.046001013,-0.39604512,-0.17545259,0.20454764,-0.11865518,-0.25892693,-0.02132282,-0.2787453,0.19745824,-0.10531447,-0.08556429,-0.3767314,-0.12254198,-0.0059597734,0.02675365,-0.31719,-0.13582401,0.29598054,0.22749402,-0.036144625,0.5711788,0.03631668,0.49687693,0.2638367,0.2482293,0.25702},
{-0.23319905,0.3729781,-0.3256557,0.26575607,-0.5802774,-0.23025468,0.089072116,0.113003135,0.50389916,-0.03378023,-0.29716146,0.037821,0.049481116,-0.09956149,-0.1789091,-0.22417143,-0.3733527,-0.11410868,0.49965215,-0.053383622,-0.28876504,0.19115616,0.08935584,0.08562842,-0.089354746,0.07362137,0.09232771,-0.18895167,-0.030552665,-0.07935244},
{0.2244892,-0.18100506,0.2232542,-0.41647318,0.13320519,0.5257789,-0.35509112,-0.1645626,-0.21777155,-0.117850885,-0.3575371,-0.565888,-0.45992652,-0.44784832,-0.23305513,0.047240768,0.20104869,0.16755506,0.07108667,0.3847887,0.06640075,-0.6407993,-0.36951727,-0.44418594,0.17806818,0.17809956,-0.4163738,-0.25404602,-0.19706523,-0.15085888},
{-0.37592664,-0.09224736,-0.29769215,-0.023846237,-0.35246238,0.2937341,-0.19826725,0.14763732,-0.09577209,0.31537148,-0.123729065,-0.09334968,-0.2060736,-0.29896814,0.15833549,0.12659705,0.14824444,0.021313393,0.121799424,0.4529177,-0.5095993,0.19399819,-0.36121163,-0.3975015,0.053322993,-0.044084523,0.20268628,-0.5151308,-0.2974626,-0.19054987},
{-0.18429953,0.02153592,-0.051797744,0.1105135,-0.044460066,0.043214317,0.38642567,0.18067715,0.01934412,-0.19496351,-0.0012872246,0.008624509,0.048911866,0.31279382,0.10183705,-0.3616618,-0.15565161,-0.081041284,0.023381708,0.25855282,0.33071294,0.3180906,0.10017993,0.03142227,0.3714319,-0.121141426,-0.10424523,0.08117492,0.34652957,0.23705108},
{-0.2427487,0.2041632,-0.037565958,-0.12645893,0.15792195,-0.37073526,0.09292955,-0.08881967,-0.056336854,0.0016247551,0.36158973,-0.07897869,-0.057051633,-0.15518987,-0.0058683534,-0.031761065,-0.10886967,-0.22303809,-0.09556532,-0.31283954,0.25997525,-0.31768095,0.10361467,-0.06475507,0.17690235,-0.36783695,0.3293257,-0.24309166,-0.3157565,-0.049539268},
{0.45117778,0.080208525,0.041883674,0.25966272,0.21894166,0.13465832,0.1079342,-0.18474293,0.26741844,-0.12910242,0.1369604,0.1830579,0.37181905,-0.14692064,0.20808381,0.19893245,-0.03379367,0.02375585,-0.011101102,-0.2211931,0.19349523,0.090251684,0.48983246,-0.1313928,0.47062895,0.34287298,0.32386598,0.43379936,0.2653398,-0.198645},
{-0.078225054,-0.057735663,0.255291,-0.25444916,-0.070683256,0.12033174,-0.087253824,0.2987547,-0.30720404,-0.10912758,-0.05495662,0.18010321,0.12187021,0.18520837,0.34826535,-0.38369465,-0.039179407,-0.0967271,-0.09558662,0.09122952,0.24168752,0.17269562,-0.0937946,0.17501989,0.19890457,0.13050005,-0.20845434,0.049783297,-0.14688087,-0.18755421},
{-0.015194025,0.32741982,0.27940944,-0.14428055,-0.039620604,0.20936304,0.0023530507,-0.124098174,0.115082465,-0.1984113,0.56424993,-0.38592446,0.21365498,0.092664585,0.27497742,0.03963472,-0.0044894703,0.11949164,0.19876283,-0.4443244,0.50360745,0.1150218,0.09256387,-0.02579252,0.15551491,-0.07739764,0.34528214,0.2521547,-0.21177615,-0.07729708},
{0.078948535,-0.08111254,-0.23194806,0.004115567,0.022455946,-0.46251184,0.21761605,0.26613972,-0.06052329,-0.45560953,0.44530562,-0.27873388,0.26456404,-0.17090483,-0.45327818,-0.5464607,-0.29768983,-0.23667297,-0.46092492,0.07297813,-0.238755,0.03291946,0.1318552,0.33498,0.052415174,0.16934292,0.33955422,-0.31013888,-0.15360907,-0.09248573},
{0.26422176,-0.24203679,0.15268373,0.03226288,-0.31272984,0.29257494,-0.1963494,-0.37128922,0.2609721,0.37979126,0.15498903,0.15080655,-0.105216585,-0.32177478,0.29923862,-0.11225731,-0.08572965,-0.22137748,0.16221353,0.12402413,0.23440577,-0.073155805,-0.3026313,0.09296714,-0.47517192,-0.12616655,0.23939775,-0.025022076,0.24054576,0.09625045},
{0.026799645,0.056896206,-0.013715848,0.12183504,0.10283602,-0.25082898,0.019244028,-0.10267273,0.03952628,0.21248543,-0.24876778,-0.15036707,0.2081664,-0.15905102,-0.21662351,0.17484073,0.14891961,-0.14653109,0.059580576,-0.016334496,-0.21922222,0.15444611,-0.07439824,0.066590674,-0.24944048,-0.22533679,-0.16637854,-0.20209579,0.33401185,-0.02880798},
{0.34885946,0.3489234,0.2378732,-0.05023991,-0.017695827,0.043184474,0.14064041,0.24082495,0.2780115,-0.003711573,-0.04018944,0.12769262,0.01282864,-0.03895723,0.051086646,0.0831436,0.20645042,0.16674468,0.19478491,-0.35627362,0.5596922,0.11730668,0.0013681606,0.10912427,0.4278102,0.36760774,0.23870103,0.13942744,0.003052228,0.012781344},
{0.18676639,0.3262932,0.0030542063,0.13775207,-0.045928907,0.24577855,-0.36380136,-0.3303607,0.43791106,0.026565634,0.059627898,0.6391682,0.102320254,-0.037928205,-0.17130366,-0.021342523,-0.16390002,0.1292122,-0.023788942,0.29874343,-0.06934062,-0.0077755377,-0.4399212,-0.11792106,-0.4189215,0.15217827,-0.45242432,-0.120556474,-0.4210406,-0.05580727},
{-0.05131376,0.21336469,0.3330756,0.04082131,0.19701229,-0.1397991,0.6362152,0.1444664,-0.22940108,-0.2103126,0.321961,-0.3109757,0.40089235,0.1105468,0.28501368,-0.37733847,0.051501542,0.34724373,-0.059943806,-0.20523636,0.5947281,0.32275185,0.071508564,0.3554049,0.1574647,-0.119853765,0.5150705,0.52394134,0.35787955,0.018888822},
{-0.18819946,-0.4217296,0.31872058,-0.36687002,-0.24251685,0.24853373,-0.4015018,0.073802896,0.08053246,0.1585554,-0.40659574,0.2399447,-0.021926505,-0.6337367,0.088123254,0.06547213,-0.1670209,-0.26796237,0.16756117,-0.025243359,-0.1136335,-0.6348426,-0.06463128,-0.040435173,0.13091956,0.3134094,-0.6111322,-0.2569849,-0.39088514,-0.43530396}};

double biases_layer0[16] = {-0.0044646994,0.13715427,0.3007436,0.227159,0.15315412,-0.11218888,0.028023515,0.007459985,-0.069338314,0.1164746,0.03240857,-0.036417652,0.19498959,0.18060991,0.27996317,0.34945175};

