double weights_layer1[8][16] = {{-0.5063788,-0.03311341,0.6569064,-0.19471328,-0.26824024,0.6850941,0.3653155,-0.5439635,-0.0048010563,0.4452154,0.35725304,0.2829386,-0.6073309,0.73108685,-0.32620585,0.19692118},
{-0.35135016,0.0084788045,0.34140587,0.6442937,0.40516344,-0.3101352,0.40411878,0.19118567,0.47859642,-0.5707796,-0.21033421,-0.37569156,0.57506734,-0.019820532,-0.068867944,0.36531875},
{0.4958992,0.027240144,0.051547967,0.3042708,0.2613242,-0.41219836,0.7893669,0.7758976,0.24344704,-0.46010798,0.5968429,-0.36334744,0.25451526,-0.3606292,-0.22821142,-0.028315881},
{-0.37695658,-0.32992208,-0.51641405,-0.090206034,-0.2855252,-0.32862055,-0.12698558,-0.44627202,-0.25459877,0.26475263,-0.2517899,0.076023966,-0.4345579,-0.2165552,-0.11564565,-0.12579727},
{-0.22300279,0.40746906,0.5201907,0.17020208,0.025407322,0.3257995,-0.11715083,-0.36538106,-0.0047494187,0.28047022,-0.06363412,0.12817807,-0.5904819,0.6566768,-0.5209215,-0.21952437},
{-0.08735454,-0.4578029,-0.35063267,0.22952461,-0.4415847,-0.22289705,-0.079301596,-0.4891388,-0.44483346,-0.3523819,-0.09250683,0.0604816,-0.32033718,-0.24812794,-0.1191529,0.04529655},
{0.4022315,-0.07636023,-0.34358805,0.29171667,0.060904518,0.28113097,0.30416358,0.7345477,0.28892118,0.2865177,0.069411896,-0.43518475,0.008288562,-0.24881232,0.29245096,0.5899553},
{0.48701948,0.33927727,-0.2419203,0.5856857,0.4874341,-0.3442844,0.3608052,-0.0005715107,-0.016134158,0.008071238,0.70493335,-0.30599007,0.14278576,-0.6165728,-0.35172766,-0.25153542}};

double biases_layer1[8] = {0.21241765,0.048216633,0.266617,-0.03218459,0.16398837,-0.005224138,-0.05294632,0.028899517};

