double weights_layer0[16][30] = {{0.29664475,0.23349074,0.19119194,-0.0628226,0.35513425,0.29139933,0.16054532,-0.14220549,0.363886,0.41914976,0.28595972,0.14937599,0.24578387,0.118276864,-0.2193385,0.23535141,0.27191114,0.29126284,-0.31423992,0.22457443,0.4212286,0.071902044,-0.123763084,-0.0018762316,0.04440174,0.41500202,0.12600683,-0.08097678,0.44816115,-0.16589208},
{0.20728959,-0.09531838,-0.19636382,-0.034150466,0.1903737,0.35016876,-0.3115388,-0.21142404,-0.041000854,-0.15114272,0.018058967,-0.32285935,-0.44301718,-0.5214186,-0.2611965,0.022778451,0.26996723,-0.11164978,0.04398244,-0.04912378,0.05614495,-0.04356177,0.010516872,-0.4625948,-0.10586956,0.119805716,-0.22399902,0.18254274,-0.3641008,-0.10290002},
{-0.27304754,-0.010046781,-0.02457921,-0.00011183314,0.3510931,0.19597054,-0.26740906,0.2868874,-0.26894698,-0.3276814,0.30243403,0.15702203,0.34294704,0.2787991,-0.14177865,0.10552238,-0.021203343,0.46288055,0.47321507,0.11188519,-0.012785187,-0.17402647,0.123496085,-0.10658523,-0.14183041,0.05384757,-0.2809478,0.38278893,0.2127308,-0.27283353},
{-0.036486875,0.49040723,0.23229672,-0.37431145,-0.40625677,-0.13158321,0.18736614,-0.013451633,0.205944,-0.2020944,0.08141001,0.4845865,-2.9464129e-05,0.22772463,-0.25497934,0.3476184,-0.2736427,0.095213756,0.10090918,0.2715455,-0.38310915,0.11649353,-0.11017037,0.20972414,-0.09090842,-0.35341194,-0.38203964,0.07004007,0.1901124,-0.0855167},
{0.43862465,-0.18973784,-0.0040473538,-0.109375305,0.4814053,0.5259891,-0.5049511,-0.006660504,-0.31316143,-0.08355413,-0.17410366,-0.014306452,-0.45159867,-0.52422804,0.06780571,0.19363399,0.06660703,0.01517228,0.21711819,-0.043159302,-0.40182498,-0.02401838,-0.1896078,0.08544099,-0.2898338,0.2988376,-0.05127377,-0.44356564,-0.10123686,0.12360651},
{-0.029624812,0.43658108,-0.12695934,-0.35576472,0.23552415,0.065218,-0.0041895234,-0.33093572,-0.1389846,-0.004624479,-0.09698538,0.16720463,-0.40050358,-0.50827366,0.13054194,0.34222057,-0.40307516,-0.05569379,0.3492582,0.051306747,0.017932417,-0.20080318,0.17025356,-0.08760832,0.19818115,-0.31964102,-0.1889812,-0.2523625,0.20590721,0.18351685},
{0.168831,-0.18274045,-0.23695213,0.16813368,-0.08374187,0.08202912,0.0483974,-0.21823657,-0.25986725,-0.10794726,-0.33507615,-0.335694,0.08142307,-0.26819226,0.32227534,-0.25095132,-0.08723168,-0.30494967,0.1959808,0.308788,-0.28880545,-0.15746173,-0.4664866,-0.13410448,-0.21177982,0.20859027,-0.36631817,0.04609002,0.08310707,0.059267953},
{-0.331798,-0.43603042,0.22955573,-0.40337226,-0.2766133,0.17927761,0.1960324,0.024391009,-0.03129134,0.26549163,-0.4685374,-0.18640916,0.2452274,0.0804979,-0.06616649,-0.2766056,0.2337563,-0.4024179,0.31464475,0.28425762,-0.114544116,-0.22393155,0.12540048,-0.3204085,0.26663712,-0.008445435,-0.05630028,-0.1054016,-0.3610005,0.20599595},
{0.21921793,-0.0655866,-0.1871385,0.2107561,-0.26084867,-0.23825237,-0.030178461,-0.22734709,0.118787125,-0.00491171,-0.0057386192,-0.17597832,-0.16888054,0.28458264,0.060379617,-0.25437915,0.38299137,0.21078393,-0.0016659055,0.12820417,0.21005349,0.48199445,-0.018351447,0.253087,0.41688704,-0.3166619,0.06159749,0.20386815,0.110852696,-0.3177955},
{0.19283554,-0.0050084894,0.13837734,0.053073414,0.07464938,-0.36813015,0.25772837,0.028929602,-0.041643493,0.018481474,-0.08921307,0.05749604,0.24534018,-0.16683048,0.24023445,-0.16324857,0.06510163,-0.41619682,-0.08857014,-0.28197643,-0.28544846,0.32261562,0.13351685,0.15398498,0.07672165,0.12636825,-0.2504745,-0.085906394,-0.28811795,-0.43592468},
{0.37598458,0.31439376,0.1569995,0.44941837,0.24759074,0.29300076,0.0283382,0.1466942,-0.20634338,-0.4070552,0.1813248,-0.12033528,0.17790455,0.062766306,0.07962551,0.18894237,0.1381712,0.12140085,-0.2878367,-0.038887773,0.528041,0.29678977,0.13516006,0.48137453,0.3342078,-0.022084257,0.5047161,-0.08690104,0.21707846,0.289049},
{0.47974795,0.2779972,0.29726142,-0.051789396,0.0075244964,0.25119132,0.5215024,0.1609155,0.54755825,0.02009222,0.11149326,0.31138635,-0.01475519,0.5898269,-0.29777786,-0.31716612,0.017011499,0.15922387,0.08630668,0.15193103,0.12104318,0.62850016,0.2233357,-0.031473063,0.46868885,0.1700216,0.3850873,0.3945017,0.53269726,0.43996435},
{0.22818208,0.439717,-0.09543011,-0.07740271,0.12806769,-0.18934183,0.26167935,0.28675106,-0.18866812,-0.44222084,0.46511507,-0.5095111,-0.25062704,0.11931027,0.13495241,-0.22330578,0.34127524,0.0005532152,-0.36298272,-0.21387126,-0.18837036,0.072769314,0.106639296,0.20464823,0.25602198,0.14007176,-0.095686965,0.12102853,0.49682686,-0.20419383},
{-0.20752807,-0.093024805,0.29648516,-0.09318329,0.03493098,0.27708367,0.23287912,-0.21513148,-0.037016053,-0.29574633,-0.10348067,-0.072017364,0.1676282,-0.11631472,0.23589179,0.13657884,-0.27987623,0.34624568,-0.23750314,0.34196687,0.3606857,0.2152225,-0.18226303,0.32958445,0.34257686,0.30258527,0.33429548,0.016538605,0.028381627,0.32453486},
{-0.33200127,0.29091868,0.06533262,0.20803013,-0.3677242,-0.2658506,0.24183673,-0.356215,0.38442266,0.24884753,-0.039547823,-0.20018694,-0.27433607,-0.16759916,-0.31337798,0.46730974,0.34834516,0.35773268,-0.04351382,0.33750042,-0.107956275,-0.1932506,-0.18515298,-0.32464364,-0.07708582,0.22886598,-0.07128912,-0.21269128,-0.2702746,-0.10277051},
{0.009309577,-0.16066474,0.0114414925,0.033357248,0.1511871,-0.056174614,-0.28389066,0.069588386,0.33275756,-0.34374577,-0.36113682,0.10519021,-0.0538542,-0.21615513,0.24351433,0.3248803,0.24015805,-0.055615515,0.04280574,-0.047959846,0.24084951,-0.19057575,0.14922428,-0.2410492,0.12035106,-0.027465006,-0.15774985,0.11459798,-0.37848845,-0.27052456}};

double biases_layer0[16] = {0.24117938,0.18508285,0.0080433125,-0.013861894,0.19720992,0.006099884,0.19876058,0.22634077,0.0011193921,0.37028176,0.2181757,0.080591455,0.1468693,-0.11544298,0.25015154,0.14757907};

