double weights_layer1[8][16] = {{0.49504864,0.24804424,0.20217726,0.15881781,-0.42143628,-0.46135342,-0.28070274,-0.20377296,0.32664192,0.31995687,0.6027289,0.19709927,0.71798354,0.3616956,-0.22638708,-0.015860936},
{0.22163056,0.38412595,-0.5231321,0.3885562,0.30792516,-0.10208336,-0.082813084,0.2800175,-0.029778752,0.045668714,-0.12695207,-0.00023274256,-0.76575243,-0.052346274,0.53513515,0.63564664},
{0.228198,0.25748187,0.52192277,-0.49519968,0.036931604,0.24369048,0.62100667,0.52449626,-0.41585103,-0.10196795,-0.68256724,-0.59787226,-0.4512587,0.49825454,0.43865618,0.087870255},
{0.028107408,0.5785651,-0.5061925,0.49613765,0.1947692,0.47693196,0.16203043,0.06038709,-0.46841386,0.020398714,0.14532758,-0.09426104,-0.60927963,-0.3922604,0.62285113,0.59420127},
{-0.12414183,-0.015131203,0.04507912,0.32405522,-0.41506428,-0.15784474,0.016322277,0.043842442,-0.45630524,-0.38432685,-0.17224762,-0.079355426,-0.14682415,-0.20463923,0.011362753,-0.09286175},
{0.31597733,0.21995986,-0.29560444,0.018766398,0.5263638,0.38375065,0.5829221,0.30959874,-0.5023127,0.50302476,0.23859845,-0.43245408,-0.6265733,-0.49716854,0.65048677,0.5624585},
{-0.28553197,-0.30584732,-0.089700595,0.3891577,-0.39988163,0.4893405,0.22345687,-0.42380488,-0.042554136,-0.34602144,-0.0056494544,0.4030574,-0.070177056,-0.22022127,-0.103325784,-0.31384715},
{0.32232457,-0.2440482,0.2956606,-0.19165725,-0.33606374,-0.18971357,-0.144879,0.3224004,0.6007019,0.3115822,0.22443508,0.45157135,0.7686104,-0.082476676,-0.16030183,-0.42253545}};

double biases_layer1[8] = {0.23789553,0.096065894,0.12387053,0.13087332,0.0056585404,0.15253149,-0.021414401,0.21865825};

