#include "../../include/network.h"

double weights_layer1[8][16] = {{0.042434588,-0.5174333,-0.1167725,-0.3590076,-0.4216093,-0.35593578,-0.45804745,-0.1811637,0.12621486,0.2848983,-0.40437376,-0.12945752,0.122161016,0.12058252,-0.038638588,0.38829964},
{0.27522117,0.41991183,0.2007303,0.36487,-0.4964891,0.6140405,-0.2739897,-0.19779138,0.2056927,0.106681354,-0.06321501,-0.059207905,0.8341668,-0.111856595,-0.35959098,-0.07979286},
{0.06428039,0.70247734,0.2550038,0.6014247,-0.47957686,0.36884043,0.1638451,-0.2508707,0.5143788,-0.7100628,-0.15114954,-0.052454874,0.5433597,0.553279,0.18247451,0.37181804},
{0.24567431,0.32719493,-0.2893959,0.33674598,0.7391168,-0.004856229,0.6404946,0.29513848,-0.52350307,0.595419,0.50969887,0.6438214,-0.74246913,0.24752817,-0.17873752,0.16682023},
{-0.18308108,0.05949211,-0.4164358,0.13462359,0.09279496,0.055110194,0.041101206,0.70410275,-0.6668128,0.3280354,0.5474303,0.4995659,-0.0596001,-0.21157807,0.001739196,-0.15740089},
{0.42242828,0.0025827046,0.036725074,-0.17040269,0.8653625,0.2806442,0.10019211,-0.15252548,0.20021646,0.021734951,-0.28978562,-0.14101905,-0.38894722,-0.30864483,0.22028852,-0.29963407},
{0.33549514,-0.18017101,-0.0248072,-0.32832915,0.16254145,-0.26595682,0.012763755,0.39220405,0.3417792,0.08319712,0.1206633,0.13877301,-0.090743355,0.27020794,-0.47616008,0.18226516},
{-0.17463109,-0.28531176,-0.39199263,0.27039844,-0.039052818,-0.12907606,0.6379928,-0.020749332,-0.33846784,0.4100444,0.74836874,0.6534741,-0.45250344,0.22988582,-0.0047673136,0.13327622}};

double biases_layer1[8] = {-0.045661166,0.25959578,0.25695604,-0.074584894,0.1403411,-0.104051135,-0.07074857,0.03531662};

