#include "../../include/network.h"

double weights_layer0[16][30] = {{-0.4304476,0.1460493,0.002953817,0.14845803,0.14318033,-0.619785,-0.08369576,0.36855873,-0.35977966,-0.43591544,0.2083906,-0.10563122,0.40018386,0.045791402,-0.10581434,-0.31367466,0.04538025,0.102795355,-0.4308475,0.010873752,0.3486202,0.38140112,-0.022568073,-0.06470721,0.43452415,-0.45407712,0.27474934,-0.052939747,0.28539714,-0.18087809},
{-0.26659793,0.074346274,-0.31660518,0.23934138,0.24529696,0.23896694,-0.4479605,0.02703186,-0.010860491,0.16835403,-0.4117653,-0.30786806,-0.33080295,-0.33875534,-0.036481444,0.19741048,0.12430104,-0.08357398,0.068721645,0.36310968,0.121932164,-0.6010649,-0.15286481,-0.36018097,-0.004216227,-0.078587525,-0.059277177,-0.4796555,-0.03338252,-0.23551214},
{0.13908815,0.26192054,0.1435443,0.19084026,0.053222086,-0.16943805,0.18222912,0.070064515,0.0583089,-0.31596422,0.038927604,-0.44788674,0.022398315,0.21833357,0.0841723,-0.37553787,-0.285214,-0.23161426,-0.14910193,0.031952508,0.4061333,0.054900978,-0.10128331,0.005255071,0.1818491,-0.3357683,-0.008817949,0.061382316,0.20374854,-0.055800356},
{-0.1247501,0.08344955,0.13676903,0.21361545,0.25980496,-0.376405,0.22912897,-5.080757e-05,-0.028289827,0.387812,0.024605764,0.22392842,0.4494317,0.21436597,-0.109357856,-0.030314794,0.060848027,0.08070869,-0.27511632,0.05535097,-0.31224957,-0.05001353,0.024882691,0.20943032,0.12092195,-0.25626218,0.36652458,-0.22565171,-0.24088451,0.0031483301},
{0.044186283,-0.18631174,0.19050539,0.046141535,0.2224075,0.00040259492,0.086864956,-0.41242832,-0.11685952,0.28077036,-0.46002433,-0.010490465,-0.09105505,-0.112372264,-0.048838887,0.38180658,0.14348228,-0.08896258,-0.015392284,0.0712024,-0.4893248,-0.41658458,-0.30469215,-0.35083514,-0.36557832,0.28835872,-0.048598778,0.12285606,-0.3143682,-0.26678267},
{0.050739095,-0.095674306,0.39894804,-0.114981666,0.15884022,0.04392564,-0.2985649,-0.15476678,-0.12925994,-0.22767659,0.09949396,0.3351491,-0.3336118,0.15751325,-0.21972482,-0.26546374,-0.27375183,0.20934457,0.15190925,0.15294378,0.13341066,-0.16823937,-0.06975537,0.07400733,0.18632057,0.24314824,-0.3207779,-0.11922024,-0.058341518,-0.14637932},
{0.07375353,0.1312241,0.13495961,0.15223734,-0.05114745,0.20003766,-0.14263423,-0.092760645,0.10403379,-0.17607036,0.18060243,-0.57393456,0.28148767,0.041664757,-0.14206542,-0.31002793,0.18584044,-0.10335467,0.13661984,-0.335842,0.102116294,0.27013433,-0.17339307,0.12898883,-0.10640248,0.053671174,0.28193134,-0.058549576,-0.12200676,0.18502279},
{-0.28024635,0.072733745,-0.114975594,0.15760604,-0.05247745,0.048018992,-0.104488075,0.16666785,0.036188584,-0.44972786,-0.46692127,0.09666901,-0.10602033,-0.37306985,0.14284547,0.11183827,-0.37716302,-0.3815548,-0.094618805,0.16431388,0.12590136,-0.20396571,0.028363876,0.003263246,-0.0580538,-0.23866902,-0.012293338,-0.20981398,-0.07673878,-0.007883331},
{0.45469975,0.21584444,0.27495763,0.45592502,0.06635962,0.056919944,0.28988323,-0.18026234,0.06232069,-0.17263967,-0.2205246,-0.11256788,-0.1993897,-0.08577949,0.3222601,-0.25214216,0.35423273,0.5155397,-0.213464,0.31495258,0.16439497,-0.20820338,0.5208542,-0.01843726,-0.18460731,-0.03629986,-0.084837876,0.14981316,0.10699614,-0.12561454},
{0.050495867,0.065296695,0.28543872,-0.21408013,-0.07465908,-0.26299515,-0.28520814,-0.13820006,-0.12546343,-0.19151503,-0.46616694,-0.13770121,-0.44878668,-0.13229086,-0.1258628,0.09262899,-0.23474914,0.19006331,0.06443577,0.08960283,-0.47141755,-0.29591143,-0.07041554,-0.310971,-0.47613633,0.24790601,-0.10007808,0.0044789407,-0.46858445,-0.20997703},
{-0.0768822,-0.2618561,0.20365772,-0.35896024,0.27037117,0.23414537,-0.16754244,0.1814813,0.0420573,0.23016849,-0.09121358,-0.20897976,-0.17307636,-0.3211255,0.0024017813,-0.23110361,-0.10965851,0.27838546,0.4220017,-0.3174922,0.038953323,0.033069734,-0.31061232,-0.22609279,-0.050868466,0.056907155,0.08863462,0.30431664,0.15378888,-0.22333157},
{0.27317804,-0.14007744,-0.18160795,-0.13753378,-0.029657641,-0.09827269,0.3099024,0.07675753,-0.30131146,-0.19070093,-0.13177857,-0.3082943,-0.20205973,-0.16504693,-0.20741433,-0.3097154,-0.26343372,-0.022305615,-0.3374321,-0.07227759,-0.16363616,-0.26469865,0.17070669,0.22147848,0.009954178,-0.2643383,-0.027644735,0.24040498,-0.24326244,0.21771713},
{-0.36421153,-0.021044953,-0.30471298,-0.112652674,-0.20522434,-0.34549627,-0.22232871,0.10818214,-0.19690455,-0.22677836,-0.51850456,0.260565,-0.08846721,-0.07503891,0.18236363,-0.15934272,-0.48753852,-0.11681064,-0.08674986,-0.117632,-0.5052718,-0.06193378,-0.12809066,-0.4072501,-0.250587,0.10596385,-0.48932204,-0.17795807,-0.042203393,-0.033223834},
{-0.19686799,0.3711506,-0.37852314,-0.14490725,0.03920217,0.5298889,-0.19765279,-0.22418702,-0.2441625,-0.11337461,-0.5526624,-0.09956462,-0.25180689,-0.0140521405,0.28179982,0.1567572,-0.29615912,-0.06337959,0.23285174,0.5323026,-0.43220833,0.14584965,-0.3366559,0.070740156,0.031563316,-0.20494427,-0.0029947003,-0.34125555,-0.1956578,0.23271137},
{0.3809341,0.4235079,0.2601344,-0.14844297,-0.11572693,0.22480685,0.47962907,0.44221202,-0.15512626,-0.13118394,0.40215883,-0.18336402,0.2727054,0.45826584,0.22075737,-0.066579536,0.043247864,0.049550638,-0.22697847,-0.13064395,0.3567475,0.305076,0.54616016,0.23694563,0.5678654,0.22976287,0.5728833,0.5517979,0.1938261,-0.15548418},
{0.1631775,0.4650032,0.27596015,-0.045493945,0.4778933,0.33175963,-0.17968643,0.06597027,0.15269315,-0.23779142,0.3377929,-0.099381775,-0.16105667,0.1348189,0.11306858,0.15039155,0.41239864,-0.21519496,0.09329832,-0.081529506,-0.10595953,0.02699633,-0.15428735,-0.08001905,0.55368954,0.09602297,-0.032470047,0.42737657,0.30151612,0.291949}};

double biases_layer0[16] = {0.2636859,-0.04199198,0.17006586,0.06068561,0.33435512,-0.106456965,-0.23167734,0.19763,0.25949773,0.20684014,0.11828478,0.020389646,0.17781644,0.08711298,0.24300854,0.20256945};

