double weights_layer0[16][30] = {{0.2962188,-0.45224866,0.21417011,0.20550653,0.24109495,0.2474149,-0.32667798,0.04140671,-0.26026094,-0.17270207,-0.35358655,0.101298526,0.036409292,-0.025032265,-0.27764148,-0.22345835,-0.10308452,0.24629544,0.40014547,-0.039131578,-0.17102714,-0.06684316,-0.22540066,-0.38526008,-0.20459281,0.33126324,-0.040580716,0.2475036,-0.32658258,-0.1922729},
{0.36339125,0.36342874,0.11731153,0.33681485,0.17603686,-0.10676131,0.4054198,-0.008265434,0.0044184,-0.09010906,0.30418256,0.23166691,0.31759486,-0.04183425,0.42782733,-0.3048606,0.04102646,0.39756846,-0.33697334,-0.28045633,0.23103532,0.35495907,0.30296504,0.3774754,0.27530926,0.039173022,-0.23673116,-0.17902914,0.41213372,-0.009811154},
{-0.06510607,0.09565734,-0.05066868,0.48097128,0.20531979,0.09478464,0.27033204,0.15710157,0.17588224,-0.4061862,0.36332172,0.19705677,0.44363728,-0.0090137115,0.27551538,0.29014978,0.23406106,0.13268937,0.27106452,0.19481055,-0.1967426,0.08213001,-0.2001404,-0.12071678,0.3796281,0.2666664,0.04573794,0.32415172,-0.071108565,0.29817164},
{-0.3424673,-0.19872154,-0.16812953,0.21173981,0.19057113,0.24031538,-0.48010576,0.07241208,0.28250864,-0.2389835,-0.31299153,-0.35821077,-0.4948324,-0.18725629,-0.21324626,0.41437203,-0.2213748,0.058456983,-0.25286824,0.19979034,-0.1536221,-0.58011407,-0.43756127,-0.40459198,0.119886376,0.25476173,-0.059989788,-0.008432062,0.012738181,-0.15879184},
{0.03716951,-0.12996608,-0.001799067,0.23005903,-0.2939302,-0.12149336,-0.33524966,-0.35917607,0.12910861,-0.09723356,-0.16065009,-0.188413,-0.4835205,0.0974421,-0.058182217,0.49579415,-0.30705664,0.13444719,0.0068131792,0.090371095,0.08445887,-0.017813006,-0.27785155,-0.3134561,-0.21404222,-0.24779525,0.0041359114,0.14923398,-0.17033388,0.073180884},
{0.29769918,0.23983374,-0.2069653,0.28750858,0.13737462,0.24940462,0.42462194,0.28261116,-0.37394848,-0.5695333,0.33384645,-0.30034393,-0.087360546,0.40154412,0.22194324,-0.30154178,0.13555677,0.21969166,-0.1698186,0.098120764,0.17414929,0.37299934,0.19863404,0.20824835,0.36124036,-0.20937803,0.1390327,0.1741082,0.29654062,-0.1832911},
{-0.1568794,0.47784126,0.09049841,-0.1975555,0.13023016,0.26786944,-0.036314998,-0.45015746,-0.17704068,0.03824197,-0.045035567,0.031759158,-0.027331702,-0.0065709017,-0.420389,0.32075477,0.28533828,-0.11511966,0.23437484,0.53593,0.2102891,0.13114436,0.24947745,-0.26345754,-0.16537605,0.33460727,0.0036598556,-0.27042437,-0.37657347,-0.10334787},
{0.1199119,-0.41639164,0.10979575,-0.28970432,0.36930135,0.18126951,0.062592626,-0.35200462,-0.021284124,0.31727567,-0.44483712,-0.31610402,-0.4994901,-0.23969874,-0.049821623,0.21392363,0.24794568,-0.22608453,0.055889912,0.4745153,0.000347837,-0.49921265,-0.40025628,-0.1288387,-0.35740063,0.24260512,-0.47723553,-0.0073185144,-0.19376794,-0.11999845},
{0.03227743,0.3147172,-0.28245708,-0.17276211,0.006070543,0.36220285,-0.20263477,-0.2307593,-0.15922132,0.28245646,-0.09660446,0.03424924,-0.014620831,-0.58994514,0.4774439,-0.024971213,-0.21728592,-0.17818306,0.16798246,-0.18404353,-0.36886567,-0.35588682,-0.27242792,-0.44346923,0.07736447,0.07392143,0.022390487,0.10016294,0.091342,-0.17615175},
{0.15969197,0.09534293,0.024360064,-0.07983813,0.5418015,0.31248257,0.4290219,0.28195426,0.12548296,-0.15820296,0.46033403,0.11999032,0.06183046,0.27597776,-0.20082669,0.15307426,-0.20314844,-0.16844298,-0.0873803,0.015678437,-0.18735486,0.33626908,0.3613847,0.090670444,0.06458423,0.40417835,0.4747303,0.17698494,0.0070967656,-0.13185953},
{-0.03939761,-0.35655746,0.34372973,-0.017296588,0.25055745,0.37790397,-0.27387065,0.33727154,-0.15430327,-0.25864398,-0.1991926,-0.13563938,0.12663671,-0.31239098,-0.33332703,0.16700585,-0.022145918,-0.41419667,-0.23760463,-0.20797157,0.22157903,-0.37533578,-0.2221475,-0.30152583,0.37247533,-0.071835354,-0.13036822,-0.27374664,-0.1479171,0.30346736},
{-0.10337945,-0.13377391,-0.09275024,0.025281308,0.20899189,0.08969261,-0.15330625,0.32892203,-0.0068333037,0.16756172,0.0015983348,0.20031554,-0.05562207,-0.085554935,-0.20313068,-0.16470206,0.2525912,-0.29670537,-0.25629407,-0.23685478,0.45650312,-0.112685375,0.27648,0.30912504,0.47778514,-0.04663838,0.00083079754,0.33353332,-0.16728766,0.49184832},
{-0.35427177,-0.18513003,0.10921548,-0.4232948,-0.081539854,-0.25591737,-0.16075309,0.15617576,0.28579375,0.3753153,-0.044654172,0.20056748,-0.2136966,-0.46284375,0.23616521,-0.027355228,0.33218953,0.019545557,-0.015923023,0.4101142,-0.17492191,0.23166585,0.22633323,0.21261147,-0.4114727,-0.12938891,-0.27802798,-0.20005205,-0.36121142,0.070694566},
{0.066877685,-0.008967288,0.34853446,-0.16109447,-0.09104377,-0.13971062,0.4767306,-0.19157982,0.29243335,-0.0046647117,0.07548016,-0.57959145,-0.08172208,0.051687047,-0.38648972,-0.22773881,-0.079516366,-0.38971084,0.17590363,-0.5406957,0.49966997,0.013981009,-0.1483124,0.32955012,0.19623432,-0.21819784,0.42950988,0.42799872,0.29938024,-0.026513154},
{-0.1894985,-0.1977626,-0.020396413,-0.32210553,0.22765341,-0.069085695,-0.4399341,0.15827623,-0.21799578,0.39439115,-0.080478154,-0.033622216,0.05959833,-0.033978272,0.15520428,0.0060071005,0.15623598,-0.26424924,0.13778616,-0.3026912,0.02011521,-0.17856163,-0.04237728,-0.30444142,0.17934708,-0.2758636,-0.289991,-0.13263345,-0.19331491,-0.2302519},
{-0.102005675,-0.09362371,0.15847874,-0.43765053,-0.024681078,-0.37355676,0.12181697,0.033431303,0.1729104,0.11289126,-0.39154348,-0.21766548,-0.009823409,0.14067832,0.24643776,-0.23956646,0.106544375,-0.29336825,0.2575619,0.07608096,0.21692333,-0.4139341,-0.16005091,0.05698253,0.110633664,-0.34718508,-0.17228504,-0.12591873,0.1547743,0.112912156}};

double biases_layer0[16] = {0.0052950936,0.15868843,0.37774855,0.2940466,0.07912928,0.32341486,0.13256855,0.28581512,0.10977683,0.12576866,0.05385059,-0.090610504,0.09644197,0.24382932,0.04645267,-0.054177307};

