#include "../../include/network.h"

double weights_layer1[8][16] = {{-0.27826366,0.12426024,-0.14946549,-0.20285098,0.7533016,0.078208394,-0.5910746,0.28885227,0.34674886,0.060714975,-0.014848468,0.52409124,-0.24986404,0.28926614,-0.7438849,0.33105597},
{-0.2870563,0.20063624,0.34943435,0.10795363,0.41028705,-0.31636938,-0.42199564,0.38277113,0.3212174,0.67405397,0.31513464,-0.2841653,0.5471852,0.2904904,-0.44171503,0.12688942},
{-0.1273425,-0.55523634,-0.25568905,-0.0904173,-0.53821623,0.21265998,-0.3495502,-0.35005742,0.49114558,0.24096619,0.27568707,0.30248484,-0.52244884,0.3454757,0.48069212,0.5599479},
{0.76830757,-0.51968014,0.53213227,0.59711444,-0.11499856,-0.48466656,0.69196695,-0.07571302,-0.2855873,-0.20773572,-0.16773926,-0.16233745,0.46082005,-0.6027193,0.14494334,0.3943186},
{-0.5224713,0.4729106,-0.27948248,0.22785695,0.38608515,-0.33707604,-0.2771011,0.21730568,-0.042114012,0.053120386,0.4332978,-0.09197989,0.3092407,0.33657897,0.3472167,-0.5529699},
{0.50588655,-0.54118407,0.55094606,0.43023503,-0.30057397,-0.5075861,-0.08095222,0.13264336,0.42917857,-0.2769196,0.26318574,0.2839958,-0.20983247,-0.21314855,0.115414,0.5907592},
{-0.21205525,-0.56128466,0.18826155,-0.35611802,-0.15695491,-0.39368302,-0.25348634,-0.15510666,0.69945514,-0.30806854,0.2695875,-0.076258235,0.2362287,-0.2767444,0.588096,0.3459865},
{-0.46283272,0.4943458,-0.045045722,0.32220474,0.26430014,-0.016906967,0.25370798,-0.1211854,0.18535502,-0.24039586,0.039419726,-0.32667747,0.007895007,0.7163792,-0.43711242,-0.23021644}};

double biases_layer1[8] = {0.16320091,0.18654191,0.107784204,0.28669694,0.056796674,0.108677745,0.16594648,0.3873159};

