double weights_layer0[16][30] = {{-0.32448646,0.06331778,-0.04761895,0.08181813,0.0818099,0.48665914,-0.38824293,0.051010046,-0.034046065,0.17704138,-0.61543053,0.04954314,-0.5470151,-0.108387314,-0.061877217,0.03911096,0.0431744,-0.050852004,0.079776235,0.49415797,-0.44287097,-0.18168727,-0.096908584,-0.49970827,-0.3624628,-0.21621132,-0.21463642,-0.0013212566,0.00013076438,-0.049965538},
{-0.33483234,0.22049409,0.28645515,-0.20346057,0.35623994,-0.20740645,0.26884598,0.25863352,-0.34918213,0.28336668,0.30180264,-0.16527319,-0.053474862,-0.37487155,0.24678737,0.19308436,0.018740052,0.306992,0.11626681,0.2705775,-0.3362344,-0.050292347,0.19966127,0.273355,-0.052749887,0.34965867,0.30047438,-0.22420025,-0.33297178,0.0027444356},
{-0.07053311,-0.57558775,-0.1124305,-0.0045309043,0.33161598,0.085437834,-0.4358931,0.00812781,0.19049822,-0.14871982,-0.17745844,-0.25634483,0.072194405,-0.44305944,-0.27522066,-0.0319443,-0.043226115,-0.09449969,-0.3295388,-0.18225203,-0.17824817,-0.570911,-0.34399515,0.1907618,0.27086213,-0.19928133,0.050637044,0.081963204,0.14124277,-0.21870507},
{-0.1456854,-0.122200795,0.4738106,-0.077230275,0.05480016,0.29452083,0.44730362,-0.2172751,0.22752577,-0.09409477,0.054507926,-0.05865757,0.16161314,-0.041637212,-0.5067622,-0.08455882,0.12247762,-0.4486366,-0.40555614,-0.039778505,0.36982995,0.33433077,-0.015024701,0.44069046,0.5259785,-0.0059652557,0.26030588,0.54508555,-0.011367152,0.027858611},
{0.301169,0.5447891,0.1783991,0.18806162,0.26454058,0.3890992,0.30245447,0.24758925,0.46413133,0.01818294,-0.18506452,-0.14193784,0.35922632,0.33369458,0.21352448,-0.25332388,0.08710762,0.07577151,0.20639771,-0.05600028,-0.08792314,-0.015081578,0.45884168,0.0027316906,0.3486879,0.29451883,0.13676506,0.4167931,-0.011388844,-0.018100658},
{-0.10795318,0.52445453,-0.39784512,-0.09648148,-0.36319372,0.17666784,0.0869475,-0.2858511,0.30132872,-0.14688563,-0.4341931,0.1356474,-0.44218653,-0.50633717,-0.0020021074,0.25225943,-0.02138816,-0.40089056,0.091272,0.3078353,-0.33540466,0.32302424,0.1183466,-0.2783498,-0.13555577,0.21600771,0.00031838432,-0.3947237,-0.086604975,0.22654235},
{0.021571334,-0.032137312,0.08790264,0.2982457,-0.14357002,0.03201541,0.23190978,-0.20468226,-0.10922443,-0.40401232,-0.4209445,0.33409506,-0.46893224,0.036285885,-0.3389337,-0.099122085,0.17108144,0.16477849,0.2284669,0.23597382,-0.3432657,-0.17062783,0.0740841,0.0632047,-0.3341468,0.3540911,0.1300164,-0.34173518,-0.32741266,0.17298222},
{-0.16562845,0.060243007,-0.04276611,0.25507978,-0.24683012,-0.1573713,-0.103802495,0.1752909,-0.3798483,0.1815392,-0.34887132,0.0866218,0.017958686,0.287568,0.011478427,0.22077723,0.2423132,0.114742346,0.217733,0.25451693,0.38718763,0.2792385,-0.19590695,0.33070514,0.55139035,0.13194758,-0.2579319,0.40762618,0.20979238,0.24492061},
{-0.11534057,-0.3802558,-0.4403114,-0.2765441,0.21521671,-0.39490736,0.16721717,0.25755942,-0.21351899,0.21274833,0.33975178,0.13490145,0.19559632,-0.06876812,0.1700831,-0.21400519,-0.46243358,-0.15936612,-0.48282796,-0.2512233,-0.17683852,0.1505412,0.10938723,-0.29544488,0.13386539,-0.44782948,0.2374162,0.123116255,-0.21821907,-0.46450174},
{0.15270056,-0.09310667,0.18126969,0.12505692,0.1312407,-0.13775274,-0.06863099,-0.1841184,-0.037685312,-0.045514062,0.104244344,-0.018814512,-0.030493557,-0.2551046,0.17156254,-0.02703578,-0.067121804,0.17987326,-0.15915246,0.23818544,0.18639457,-0.11208084,0.16616555,-0.3767564,-0.052943632,0.029648887,0.010630323,-0.31627828,0.1326853,0.2870775},
{-0.1659984,-0.15071806,-0.3132011,-0.38437822,-0.26125747,-0.32563752,-0.43242282,-0.26001287,-0.43822318,-0.12861302,-0.06496392,-0.5216055,-0.20439778,-0.51743954,0.25866696,0.0097956695,-0.31081313,0.026927123,0.34005347,-0.24098022,-0.19040997,-0.058781356,0.19997308,-0.41683906,-0.29323146,-0.27946886,-0.40521705,0.21451376,0.20248705,-0.12289233},
{0.30953914,0.056273635,0.31673902,-0.1491259,-0.018247701,0.24183856,0.4672304,0.3773211,0.012343195,-0.5142849,0.46080592,-0.20558941,0.41577992,-0.03356653,0.31196463,-0.17071234,0.19098313,-0.14053975,-0.056248557,-0.16423395,0.5014848,0.4524459,0.36736956,-0.0204965,0.14484389,-0.20854692,0.17230837,-0.027766095,0.17525983,0.18948871},
{-0.14702293,0.15521857,-0.0875725,-0.056776877,0.09110711,0.27922055,-0.120108835,-0.19939792,0.067857854,0.2262146,-0.18473133,-0.4106391,-0.25798312,-0.48041856,-0.12771328,0.36164284,0.22297093,0.20752501,0.028505785,0.11566594,-0.14608534,-0.4365326,-0.05941058,-0.42388436,-0.017021127,-0.09787968,-0.48392728,-0.47361174,-0.0046194172,0.17681079},
{0.12725054,-0.3870301,0.34667382,-0.13300148,0.119968206,0.047040414,0.1417963,-0.13435237,0.35378897,0.1781339,-0.43534502,-0.11924937,-0.2691776,-0.27175546,0.45129812,0.16917706,-0.2956681,-0.50320226,-0.20763679,-0.052130986,-0.47421512,-0.5808448,0.25246024,-0.28448138,0.15616173,0.31265113,-0.23855785,-0.16850808,-0.41956624,-0.22628295},
{0.48312962,0.18128356,-0.009271905,-0.17828628,-0.31345296,-0.34908614,0.23118125,0.36547446,0.2258587,0.061567046,-0.1495164,-0.4452582,0.1357913,-0.2465629,-0.0711759,-0.5262102,0.100484855,0.11116546,-0.103699826,-0.2326214,0.52289903,0.6363454,0.063911274,0.2549006,-0.15149853,-0.28440115,0.37220103,0.35263276,0.26022238,0.24979052},
{0.17138916,0.27056584,0.16404061,-0.38904172,-0.11069173,-0.58504444,-0.035058334,0.18366636,-0.22607034,-0.23882717,-0.27442804,-0.2583028,0.10535635,0.25146458,0.040683072,-0.13904276,0.35008666,-0.25327426,0.23084451,-0.34222287,0.26782104,0.13269377,0.14806981,0.098025136,0.19630364,0.038279805,0.4039137,0.046270363,0.47152767,0.15390775}};

double biases_layer0[16] = {0.2994878,0.24016017,0.21452916,0.1958293,0.1791703,0.29960844,0.06386919,0.1451651,0.24592167,-0.17780894,0.10540069,0.27475628,0.029013602,0.30191898,0.2323186,-0.051033255};

