double weights_layer1[8][16] = {{-0.6043096,0.097419225,-0.008129518,0.28005648,0.50201523,0.5524895,-0.60113484,0.39931598,-0.13797124,-0.38180697,0.14822134,0.75591356,-0.49589342,0.10348917,0.45519307,-0.104530424},
{0.435377,-0.09148993,0.43028036,-0.30421308,-0.6146937,0.50300986,0.5107168,0.19668603,-0.18803155,0.005379294,-0.062065355,0.18136126,0.24203375,0.08237828,0.04950345,-0.6962459},
{-0.10984821,0.57723236,-0.0060040234,0.67892563,0.5864043,-0.110712536,-0.5130489,0.2597663,0.6480672,0.002112302,0.104801625,-0.029118177,-0.30657014,-0.54282135,0.4253009,0.3351684},
{0.6865361,0.4563692,-0.090380535,-0.22218113,-0.54527014,0.10974064,0.56970805,-0.071134806,0.042444523,-0.08317726,-0.22988498,-0.37623706,-0.008343736,0.6632741,0.14172046,-0.04245232},
{0.020034084,-0.40530705,-0.37907758,-0.18209766,-0.010915248,0.38191506,0.41676342,-0.11421269,-0.25163805,0.020669242,-0.13196866,-0.034635462,-0.13422424,-0.06611151,0.18267722,-0.34144163},
{-0.48467135,0.31707865,0.09057392,0.7000743,0.34274447,0.37319258,-0.6211897,0.39013734,0.6727046,-0.27529672,0.120378815,0.35824096,-0.49760577,-0.30953777,0.46800938,0.15254016},
{0.03718585,0.4207743,0.5417416,-0.66491675,-0.2954218,0.23446485,-0.08528058,0.42766064,0.38904628,-0.19975258,0.53518564,-0.2861225,0.1427565,0.5060049,-0.6323601,-0.010182469},
{0.5159251,0.53797233,-0.058715645,0.13588636,-0.45814002,0.4120558,0.1901446,-0.5519508,-0.26604438,-0.2926641,0.41947687,0.14911532,0.40035018,0.8302918,-0.4163728,-0.8147417}};

double biases_layer1[8] = {0.23622026,0.13268352,0.27090943,0.15194848,0.01607543,0.2705771,0.12548144,0.16886695};

